{"learner":{"attributes":{"scikit_learn":"{\"_estimator_type\": \"classifier\"}"},"feature_names":["absolute_magnitude","relative_velocity_km_per_hr","miss_dist_kilometers","orbit_uncertainity","minimum_orbit_intersection","eccentricity","semi_major_axis","inclination","asc_node_longitude","perihelion_distance","perihelion_arg","mean_anomaly","is_coplanar"],"feature_types":["float","float","float","c","float","float","float","float","float","float","float","float","i"],"gradient_booster":{"model":{"cats":{"enc":[{"offsets":[],"values":[]},{"offsets":[],"values":[]},{"offsets":[],"values":[]},{"type":15,"values":[0,1,2,3,4,5,6,7,8,9]},{"offsets":[],"values":[]},{"offsets":[],"values":[]},{"offsets":[],"values":[]},{"offsets":[],"values":[]},{"offsets":[],"values":[]},{"offsets":[],"values":[]},{"offsets":[],"values":[]},{"offsets":[],"values":[]},{"offsets":[],"values":[]}],"feature_segments":[0,0,0,0,10,10,10,10,10,10,10,10,10,10],"sorted_idx":[0,1,2,3,4,5,6,7,8,9]},"gbtree_model_param":{"num_parallel_tree":"1","num_trees":"50"},"iteration_indptr":[0,1,2,3,4,5,6,7,8,9,10,11,12,13,14,15,16,17,18,19,20,21,22,23,24,25,26,27,28,29,30,31,32,33,34,35,36,37,38,39,40,41,42,43,44,45,46,47,48,49,50],"tree_info":[0,0,0,0,0,0,0,0,0,0,0,0,0,0,0,0,0,0,0,0,0,0,0,0,0,0,0,0,0,0,0,0,0,0,0,0,0,0,0,0,0,0,0,0,0,0,0,0,0,0],"trees":[{"base_weights":[-2.096359E-3,1.1233329E0,-1.1488522E0,6.0360055E0,-1.1638088E0,-3.7668392E-1,-4.8503093E-2,2.5073153E-1,6.986869E-2,7.943853E-3,-4.861083E-2,2.7919441E-2,-4.160798E-2],"categories":[],"categories_nodes":[],"categories_segments":[],"categories_sizes":[],"default_left":[0,0,0,0,0,0,0,0,0,0,0,0,0],"id":0,"left_children":[1,3,5,7,9,11,-1,-1,-1,-1,-1,-1,-1],"loss_changes":[5.56889E2,2.4539426E3,4.8854065E0,1.0599609E1,4.278549E0,7.447718E0,0E0,0E0,0E0,0E0,0E0,0E0,0E0],"parents":[2147483647,0,0,1,1,2,2,3,3,4,4,5,5],"right_children":[2,4,6,8,10,12,-1,-1,-1,-1,-1,-1,-1],"split_conditions":[2.207E1,4.97576E-2,2.2204E1,2.2E1,5.11105E-2,2.4572E-2,-4.8503093E-2,2.5073153E-1,6.986869E-2,7.943853E-3,-4.861083E-2,2.7919441E-2,-4.160798E-2],"split_indices":[0,4,0,0,4,4,0,0,0,0,0,0,0],"split_type":[0,0,0,0,0,0,0,0,0,0,0,0,0],"sum_hessian":[4.2949866E2,2.1677527E2,2.1272339E2,6.834161E1,1.4843365E2,9.049186E0,2.0367421E2,6.685593E1,1.4856871E0,2.025937E0,1.4640771E2,3.3765619E0,5.6726236E0],"tree_param":{"num_deleted":"0","num_feature":"13","num_nodes":"13","size_leaf_vector":"1"}},{"base_weights":[9.70346E-3,1.0575448E0,-1.1336899E0,2.0215428E-1,-4.8233736E-2,-2.7944943E-1,-4.8115093E-2,3.0919135E-2,-4.1003514E-2],"categories":[],"categories_nodes":[],"categories_segments":[],"categories_sizes":[],"default_left":[0,0,0,0,0,0,0,0,0],"id":1,"left_children":[1,3,5,-1,-1,7,-1,-1,-1],"loss_changes":[5.1662866E2,1.9470818E3,6.3685303E0,0E0,0E0,8.24843E0,0E0,0E0,0E0],"parents":[2147483647,0,0,1,1,2,2,5,5],"right_children":[2,4,6,-1,-1,8,-1,-1,-1],"split_conditions":[2.207E1,5.0567E-2,2.2204E1,2.0215428E-1,-4.8233736E-2,2.4572E-2,-4.8115093E-2,3.0919135E-2,-4.1003514E-2],"split_indices":[0,4,0,0,0,4,0,0,0],"split_type":[0,0,0,0,0,0,0,0,0],"sum_hessian":[4.2920776E2,2.2400117E2,2.0520659E2,8.156014E1,1.4244102E2,9.098255E0,1.9610834E2,3.7159846E0,5.38227E0],"tree_param":{"num_deleted":"0","num_feature":"13","num_nodes":"9","size_leaf_vector":"1"}},{"base_weights":[-6.4416435E-3,9.6701425E-1,-1.1241419E0,4.213541E0,-1.1520158E0,-2.827581E-1,-4.77514E-2,1.7470573E-1,5.6187734E-2,-5.4202033E-3,-4.786703E-2,2.9425783E-2,-4.0719472E-2],"categories":[],"categories_nodes":[],"categories_segments":[],"categories_sizes":[],"default_left":[0,0,0,0,0,0,0,0,0,0,0,0,0],"id":2,"left_children":[1,3,5,7,9,11,-1,-1,-1,-1,-1,-1,-1],"loss_changes":[4.6933804E2,1.5910098E3,6.210327E0,4.80188E0,1.7988892E0,7.9020495E0,0E0,0E0,0E0,0E0,0E0,0E0,0E0],"parents":[2147483647,0,0,1,1,2,2,3,3,4,4,5,5],"right_children":[2,4,6,8,10,12,-1,-1,-1,-1,-1,-1,-1],"split_conditions":[2.207E1,4.97576E-2,2.2204E1,2.2E1,5.11105E-2,2.4572E-2,-4.77514E-2,1.7470573E-1,5.6187734E-2,-5.4202033E-3,-4.786703E-2,2.9425783E-2,-4.0719472E-2],"split_indices":[0,4,0,0,4,4,0,0,0,0,0,0,0],"split_type":[0,0,0,0,0,0,0,0,0,0,0,0,0],"sum_hessian":[4.293651E2,2.2956305E2,1.9980206E2,9.027143E1,1.3929161E2,9.152075E0,1.9064998E2,8.850369E1,1.7677428E0,1.9797783E0,1.3731184E2,3.7933156E0,5.3587594E0],"tree_param":{"num_deleted":"0","num_feature":"13","num_nodes":"13","size_leaf_vector":"1"}},{"base_weights":[-1.0864121E-2,9.119638E-1,-1.1199768E0,3.6789453E0,-4.753194E-2,-3.6983448E-1,-4.7405586E-2,1.5265356E-1,4.814481E-2,2.3921542E-2,-4.058827E-2],"categories":[],"categories_nodes":[],"categories_segments":[],"categories_sizes":[],"default_left":[0,0,0,0,0,0,0,0,0,0,0],"id":3,"left_children":[1,3,5,7,-1,9,-1,-1,-1,-1,-1],"loss_changes":[4.3962955E2,1.3468118E3,4.613846E0,5.3426514E0,0E0,6.48817E0,0E0,0E0,0E0,0E0,0E0],"parents":[2147483647,0,0,1,1,2,2,3,3,5,5],"right_children":[2,4,6,8,-1,10,-1,-1,-1,-1,-1],"split_conditions":[2.207E1,5.0567E-2,2.2204E1,2.2E1,-4.753194E-2,2.4572E-2,-4.7405586E-2,1.5265356E-1,4.814481E-2,2.3921542E-2,-4.058827E-2],"split_indices":[0,4,0,0,0,4,0,0,0,0,0],"split_type":[0,0,0,0,0,0,0,0,0,0,0],"sum_hessian":[4.2752905E2,2.334591E2,1.9406995E2,9.956195E1,1.3389716E2,9.036057E0,1.8503389E2,9.758053E1,1.9814281E0,3.580964E0,5.4550934E0],"tree_param":{"num_deleted":"0","num_feature":"13","num_nodes":"11","size_leaf_vector":"1"}},{"base_weights":[-1.1999271E-2,8.635129E-1,-1.1058763E0,3.2988071E0,-4.720272E-2,-2.9700178E-1,-4.7074106E-2,1.3637736E-1,2.8553378E-2,2.6905144E-2,-4.031315E-2],"categories":[],"categories_nodes":[],"categories_segments":[],"categories_sizes":[],"default_left":[0,0,0,0,0,0,0,0,0,0,0],"id":4,"left_children":[1,3,5,7,-1,9,-1,-1,-1,-1,-1],"loss_changes":[4.0675967E2,1.1603115E3,5.841217E0,3.8944092E0,0E0,7.389576E0,0E0,0E0,0E0,0E0,0E0],"parents":[2147483647,0,0,1,1,2,2,3,3,5,5],"right_children":[2,4,6,8,-1,10,-1,-1,-1,-1,-1],"split_conditions":[2.207E1,5.0567E-2,2.2204E1,4.97576E-2,-4.720272E-2,2.4572E-2,-4.7074106E-2,1.3637736E-1,2.8553378E-2,2.6905144E-2,-4.031315E-2],"split_indices":[0,4,0,4,0,4,0,0,0,0,0],"split_type":[0,0,0,0,0,0,0,0,0,0,0],"sum_hessian":[4.2272726E2,2.349165E2,1.8781078E2,1.0601834E2,1.2889816E2,9.347548E0,1.7846323E2,1.0484603E2,1.1723135E0,3.9280498E0,5.4194975E0],"tree_param":{"num_deleted":"0","num_feature":"13","num_nodes":"11","size_leaf_vector":"1"}},{"base_weights":[-1.2058201E-2,7.963759E-1,-4.7007225E-2,2.97217E0,-1.1059766E0,1.24503374E-1,4.1710354E-2,1.5951003E-3,-4.6586283E-2],"categories":[],"categories_nodes":[],"categories_segments":[],"categories_sizes":[],"default_left":[0,0,0,0,0,0,0,0,0],"id":5,"left_children":[1,3,-1,5,7,-1,-1,-1,-1],"loss_changes":[3.8782315E2,1.0262633E3,0E0,1.042804E1,4.3695374E0,0E0,0E0,0E0,0E0],"parents":[2147483647,0,0,1,1,3,3,4,4],"right_children":[2,4,-1,6,8,-1,-1,-1,-1],"split_conditions":[5.0567E-2,2.22E1,-4.7007225E-2,2.2E1,2.2204E1,1.24503374E-1,4.1710354E-2,1.5951003E-3,-4.6586283E-2],"split_indices":[4,0,0,0,0,0,0,0,0],"split_type":[0,0,0,0,0,0,0,0,0],"sum_hessian":[4.2153757E2,2.461478E2,1.7538977E2,1.145594E2,1.315884E2,1.1063118E2,3.9282255E0,3.1870904E0,1.284013E2],"tree_param":{"num_deleted":"0","num_feature":"13","num_nodes":"9","size_leaf_vector":"1"}},{"base_weights":[-7.107908E-3,7.933256E-1,-1.0889623E0,2.7666705E0,-4.6599586E-2,-2.797662E-1,-4.64617E-2,1.14717E-1,3.8597763E-2,2.4835102E-2,-3.95347E-2],"categories":[],"categories_nodes":[],"categories_segments":[],"categories_sizes":[],"default_left":[0,0,0,0,0,0,0,0,0,0,0],"id":6,"left_children":[1,3,5,7,-1,9,-1,-1,-1,-1,-1],"loss_changes":[3.6073727E2,9.14157E2,5.7723236E0,3.2091064E0,0E0,6.722431E0,0E0,0E0,0E0,0E0,0E0],"parents":[2147483647,0,0,1,1,2,2,3,3,5,5],"right_children":[2,4,6,8,-1,10,-1,-1,-1,-1,-1],"split_conditions":[2.207E1,5.0567E-2,2.2204E1,2.2E1,-4.6599586E-2,2.4572E-2,-4.64617E-2,1.14717E-1,3.8597763E-2,2.4835102E-2,-3.95347E-2],"split_indices":[0,4,0,0,0,4,0,0,0,0,0],"split_type":[0,0,0,0,0,0,0,0,0,0,0],"sum_hessian":[4.1458096E2,2.3843578E2,1.761452E2,1.17621086E2,1.2081468E2,9.163538E0,1.6698166E2,1.1539085E2,2.2302463E0,4.0424957E0,5.1210423E0],"tree_param":{"num_deleted":"0","num_feature":"13","num_nodes":"11","size_leaf_vector":"1"}},{"base_weights":[-2.1827366E-2,7.168245E-1,-4.6433404E-2,2.067892E0,-5.9504867E-1,2.0012079E-2,9.101468E-2,-3.196007E-2,3.7604522E-2],"categories":[3,4,5,6,7,8,9],"categories_nodes":[1],"categories_segments":[0],"categories_sizes":[7],"default_left":[0,1,0,0,0,0,0,0,0],"id":7,"left_children":[1,3,-1,5,7,-1,-1,-1,-1],"loss_changes":[3.3300092E2,4.3374902E2,0E0,2.7189758E1,3.520379E1,0E0,0E0,0E0,0E0],"parents":[2147483647,0,0,1,1,3,3,4,4],"right_children":[2,4,-1,6,8,-1,-1,-1,-1],"split_conditions":[5.0567E-2,1E-45,-4.6433404E-2,1.7895469E-1,6.1101353E-1,2.0012079E-2,9.101468E-2,-3.196007E-2,3.7604522E-2],"split_indices":[4,3,0,5,5,0,0,0,0],"split_type":[0,1,0,0,0,0,0,0,0],"sum_hessian":[4.0455142E2,2.4302585E2,1.6152557E2,1.1944054E2,1.2358532E2,1.062622E1,1.08814316E2,1.1064942E2,1.2935901E1],"tree_param":{"num_deleted":"0","num_feature":"13","num_nodes":"9","size_leaf_vector":"1"}},{"base_weights":[-1.0179237E-2,7.3485076E-1,-1.0989289E0,2.4375544E0,-4.6059895E-2,-3.2166982E-1,-4.6042442E-2,1.0184838E-1,3.8164884E-2,4.9539033E-2,-3.842216E-2],"categories":[],"categories_nodes":[],"categories_segments":[],"categories_sizes":[],"default_left":[0,0,0,0,0,0,0,0,0,0,0],"id":8,"left_children":[1,3,5,7,-1,9,-1,-1,-1,-1,-1],"loss_changes":[3.2755518E2,7.606371E2,2.4830017E0,5.762451E0,0E0,6.737428E0,0E0,0E0,0E0,0E0,0E0],"parents":[2147483647,0,0,1,1,2,2,3,3,5,5],"right_children":[2,4,6,8,-1,10,-1,-1,-1,-1,-1],"split_conditions":[2.22E1,5.0567E-2,2.2204E1,2.2E1,-4.6059895E-2,9.7629154E-1,-4.6042442E-2,1.0184838E-1,3.8164884E-2,4.9539033E-2,-3.842216E-2],"split_indices":[0,4,0,0,0,6,0,0,0,0,0],"split_type":[0,0,0,0,0,0,0,0,0,0,0],"sum_hessian":[4.0181967E2,2.3876093E2,1.6305875E2,1.2437591E2,1.1438502E2,4.978076E0,1.5808067E2,1.2032732E2,4.0485873E0,1.1503526E0,3.8277235E0],"tree_param":{"num_deleted":"0","num_feature":"13","num_nodes":"11","size_leaf_vector":"1"}},{"base_weights":[9.4987E-4,7.263188E-1,-1.097892E0,2.2955713E0,-4.5803342E-2,-4.560329E-1,-4.577646E-2,9.58831E-2,3.630907E-2,3.1134937E-2,-3.7743524E-2],"categories":[],"categories_nodes":[],"categories_segments":[],"categories_sizes":[],"default_left":[0,0,0,0,0,0,0,0,0,0,0],"id":9,"left_children":[1,3,5,7,-1,9,-1,-1,-1,-1,-1],"loss_changes":[3.1703806E2,6.9501904E2,1.2032471E0,5.144165E0,0E0,3.9248424E0,0E0,0E0,0E0,0E0,0E0],"parents":[2147483647,0,0,1,1,2,2,3,3,5,5],"right_children":[2,4,6,8,-1,10,-1,-1,-1,-1,-1],"split_conditions":[2.22E1,5.0567E-2,2.2204E1,2.2E1,-4.5803342E-2,9.7629154E-1,-4.577646E-2,9.58831E-2,3.630907E-2,3.1134937E-2,-3.7743524E-2],"split_indices":[0,4,0,0,0,6,0,0,0,0,0],"split_type":[0,0,0,0,0,0,0,0,0,0,0],"sum_hessian":[3.95756E2,2.3859404E2,1.5716199E2,1.2869356E2,1.0990048E2,4.740503E0,1.5242148E2,1.2456343E2,4.130118E0,1.1328868E0,3.607616E0],"tree_param":{"num_deleted":"0","num_feature":"13","num_nodes":"11","size_leaf_vector":"1"}},{"base_weights":[-1.3555476E-2,6.7980707E-1,-1.0847648E0,2.1648693E0,-4.5563057E-2,-2.9032505E-1,-4.55208E-2,9.072312E-2,2.742644E-2,5.14554E-2,-3.7639234E-2],"categories":[],"categories_nodes":[],"categories_segments":[],"categories_sizes":[],"default_left":[0,0,0,0,0,0,0,0,0,0,0],"id":10,"left_children":[1,3,5,7,-1,9,-1,-1,-1,-1,-1],"loss_changes":[2.8951678E2,6.3124054E2,2.5693817E0,7.147522E0,0E0,6.7573085E0,0E0,0E0,0E0,0E0,0E0],"parents":[2147483647,0,0,1,1,2,2,3,3,5,5],"right_children":[2,4,6,8,-1,10,-1,-1,-1,-1,-1],"split_conditions":[2.22E1,5.0567E-2,2.2204E1,2.2E1,-4.5563057E-2,9.595549E-1,-4.55208E-2,9.072312E-2,2.742644E-2,5.14554E-2,-3.7639234E-2],"split_indices":[0,4,0,0,0,6,0,0,0,0,0],"split_type":[0,0,0,0,0,0,0,0,0,0,0],"sum_hessian":[3.8780463E2,2.3564432E2,1.5216031E2,1.2865697E2,1.0698734E2,4.8027887E0,1.4735751E2,1.24486595E2,4.170377E0,1.0974442E0,3.7053444E0],"tree_param":{"num_deleted":"0","num_feature":"13","num_nodes":"11","size_leaf_vector":"1"}},{"base_weights":[-9.390591E-3,6.659777E-1,-1.0779748E0,2.0655007E0,-4.532759E-2,-3.02336E-1,-4.527242E-2,8.656062E-2,2.6468838E-2,4.952946E-2,-3.760333E-2],"categories":[],"categories_nodes":[],"categories_segments":[],"categories_sizes":[],"default_left":[0,0,0,0,0,0,0,0,0,0,0],"id":11,"left_children":[1,3,5,7,-1,9,-1,-1,-1,-1,-1],"loss_changes":[2.7400555E2,5.7852075E2,2.4610748E0,6.494995E0,0E0,6.545509E0,0E0,0E0,0E0,0E0,0E0],"parents":[2147483647,0,0,1,1,2,2,3,3,5,5],"right_children":[2,4,6,8,-1,10,-1,-1,-1,-1,-1],"split_conditions":[2.22E1,5.0567E-2,2.2204E1,2.2E1,-4.532759E-2,9.595549E-1,-4.527242E-2,8.656062E-2,2.6468838E-2,4.952946E-2,-3.760333E-2],"split_indices":[0,4,0,0,0,6,0,0,0,0,0],"split_type":[0,0,0,0,0,0,0,0,0,0,0],"sum_hessian":[3.7767844E2,2.3164839E2,1.4603004E2,1.2926279E2,1.02385605E2,4.880417E0,1.4114963E2,1.2504528E2,4.2175097E0,1.1314596E0,3.7489574E0],"tree_param":{"num_deleted":"0","num_feature":"13","num_nodes":"11","size_leaf_vector":"1"}},{"base_weights":[-1.3023944E-2,6.459E-1,-1.0717773E0,1.9939029E0,-1.0758127E0,-2.6341638E-1,-4.5046296E-2,8.271607E-2,1.9373717E-2,9.202586E-3,-4.510678E-2,4.6039265E-2,-3.67398E-2],"categories":[],"categories_nodes":[],"categories_segments":[],"categories_sizes":[],"default_left":[0,0,0,0,0,0,0,0,0,0,0,0,0],"id":12,"left_children":[1,3,5,7,9,11,-1,-1,-1,-1,-1,-1,-1],"loss_changes":[2.605875E2,5.3652673E2,2.6291504E0,3.0715942E0,3.2398071E0,5.9385924E0,0E0,0E0,0E0,0E0,0E0,0E0,0E0],"parents":[2147483647,0,0,1,1,2,2,3,3,4,4,5,5],"right_children":[2,4,6,8,10,12,-1,-1,-1,-1,-1,-1,-1],"split_conditions":[2.22E1,4.97576E-2,2.2204E1,2.207E1,5.0567E-2,9.7629154E-1,-4.5046296E-2,8.271607E-2,1.9373717E-2,9.202586E-3,-4.510678E-2,4.6039265E-2,-3.67398E-2],"split_indices":[0,4,0,0,4,6,0,0,0,0,0,0,0],"split_type":[0,0,0,0,0,0,0,0,0,0,0,0,0],"sum_hessian":[3.7153598E2,2.2925017E2,1.4228581E2,1.2849097E2,1.007592E2,4.6467605E0,1.3763905E2,1.2647209E2,2.0188808E0,1.5718545E0,9.918735E1,1.2121495E0,3.4346108E0],"tree_param":{"num_deleted":"0","num_feature":"13","num_nodes":"13","size_leaf_vector":"1"}},{"base_weights":[-1.4637276E-2,6.1991847E-1,-1.0653367E0,1.9056779E0,-1.0791055E0,-2.7064386E-1,-4.481344E-2,7.970599E-2,3.0121705E-2,-1.2684739E-3,-4.4895668E-2,5.466995E-2,-3.7296955E-2],"categories":[],"categories_nodes":[],"categories_segments":[],"categories_sizes":[],"default_left":[0,0,0,0,0,0,0,0,0,0,0,0,0],"id":13,"left_children":[1,3,5,7,9,11,-1,-1,-1,-1,-1,-1,-1],"loss_changes":[2.4271007E2,4.9789398E2,2.5327454E0,3.9415283E0,1.4308243E0,6.9969225E0,0E0,0E0,0E0,0E0,0E0,0E0,0E0],"parents":[2147483647,0,0,1,1,2,2,3,3,4,4,5,5],"right_children":[2,4,6,8,10,12,-1,-1,-1,-1,-1,-1,-1],"split_conditions":[2.22E1,4.97576E-2,2.2204E1,2.2E1,5.0567E-2,9.443168E-1,-4.481344E-2,7.970599E-2,3.0121705E-2,-1.2684739E-3,-4.4895668E-2,5.466995E-2,-3.7296955E-2],"split_indices":[0,4,0,0,4,6,0,0,0,0,0,0,0],"split_type":[0,0,0,0,0,0,0,0,0,0,0,0,0],"sum_hessian":[3.6204138E2,2.2597614E2,1.3606525E2,1.2856284E2,9.74133E1,4.666247E0,1.31399E2,1.2416454E2,4.3982973E0,1.3442202E0,9.606908E1,1.0187397E0,3.6475072E0],"tree_param":{"num_deleted":"0","num_feature":"13","num_nodes":"13","size_leaf_vector":"1"}},{"base_weights":[-1.7827963E-2,6.0338527E-1,-1.059487E0,1.8321506E0,-1.0643489E0,-2.7331597E-1,-4.4601474E-2,7.6673895E-2,2.878195E-2,8.990155E-3,-4.4691257E-2,5.2715108E-2,-3.706033E-2],"categories":[],"categories_nodes":[],"categories_segments":[],"categories_sizes":[],"default_left":[0,0,0,0,0,0,0,0,0,0,0,0,0],"id":14,"left_children":[1,3,5,7,9,11,-1,-1,-1,-1,-1,-1,-1],"loss_changes":[2.2985777E2,4.5797763E2,2.4834747E0,3.7816467E0,3.1623764E0,6.730089E0,0E0,0E0,0E0,0E0,0E0,0E0,0E0],"parents":[2147483647,0,0,1,1,2,2,3,3,4,4,5,5],"right_children":[2,4,6,8,10,12,-1,-1,-1,-1,-1,-1,-1],"split_conditions":[2.22E1,4.97576E-2,2.2204E1,2.2E1,5.0567E-2,9.443168E-1,-4.4601474E-2,7.6673895E-2,2.878195E-2,8.990155E-3,-4.4691257E-2,5.2715108E-2,-3.706033E-2],"split_indices":[0,4,0,0,4,6,0,0,0,0,0,0,0],"split_type":[0,0,0,0,0,0,0,0,0,0,0,0,0],"sum_hessian":[3.532284E2,2.2153345E2,1.3169495E2,1.27496826E2,9.403662E1,4.6872225E0,1.2700773E2,1.2303758E2,4.459247E0,1.5755931E0,9.246103E1,1.0495591E0,3.6376636E0],"tree_param":{"num_deleted":"0","num_feature":"13","num_nodes":"13","size_leaf_vector":"1"}},{"base_weights":[-1.7106041E-2,5.9518737E-1,-1.0684906E0,1.7560046E0,-4.4497892E-2,-5.568659E-1,-4.4395696E-2,7.3678546E-2,2.4860306E-2,-3.5882145E-2,1.3334988E-2],"categories":[],"categories_nodes":[],"categories_segments":[],"categories_sizes":[],"default_left":[0,0,0,0,0,0,0,0,0,0,0],"id":15,"left_children":[1,3,5,7,-1,9,-1,-1,-1,-1,-1],"loss_changes":[2.2401825E2,4.305044E2,2.259674E-1,4.6488037E0,0E0,1.722502E0,0E0,0E0,0E0,0E0,0E0],"parents":[2147483647,0,0,1,1,2,2,3,3,5,5],"right_children":[2,4,6,8,-1,10,-1,-1,-1,-1,-1],"split_conditions":[2.22E1,5.0567E-2,2.2204E1,2.2E1,-4.4497892E-2,1.4614649E1,-4.4395696E-2,7.3678546E-2,2.4860306E-2,-3.5882145E-2,1.3334988E-2],"split_indices":[0,4,0,0,0,7,0,0,0,0,0],"split_type":[0,0,0,0,0,0,0,0,0,0,0],"sum_hessian":[3.4599847E2,2.1893279E2,1.2706569E2,1.2940741E2,8.952538E1,4.1491637E0,1.2291653E2,1.2470549E2,4.7019186E0,3.0584726E0,1.0906912E0],"tree_param":{"num_deleted":"0","num_feature":"13","num_nodes":"11","size_leaf_vector":"1"}},{"base_weights":[-1.5954787E-2,5.791162E-1,-1.0552537E0,1.7148393E0,-1.0545666E0,-3.6330786E-1,-4.419389E-2,7.1223475E-2,1.5839519E-2,6.949514E-3,-4.431032E-2,3.263872E-2,-3.5148557E-2],"categories":[],"categories_nodes":[],"categories_segments":[],"categories_sizes":[],"default_left":[0,0,0,0,0,0,0,0,0,0,0,0,0],"id":16,"left_children":[1,3,5,7,9,11,-1,-1,-1,-1,-1,-1,-1],"loss_changes":[2.0932626E2,4.0118234E2,1.396164E0,2.6488037E0,2.8459167E0,3.6086264E0,0E0,0E0,0E0,0E0,0E0,0E0,0E0],"parents":[2147483647,0,0,1,1,2,2,3,3,4,4,5,5],"right_children":[2,4,6,8,10,12,-1,-1,-1,-1,-1,-1,-1],"split_conditions":[2.22E1,4.97576E-2,2.2204E1,2.207E1,5.0567E-2,9.595549E-1,-4.419389E-2,7.1223475E-2,1.5839519E-2,6.949514E-3,-4.431032E-2,3.263872E-2,-3.5148557E-2],"split_indices":[0,4,0,0,4,6,0,0,0,0,0,0,0],"split_type":[0,0,0,0,0,0,0,0,0,0,0,0,0],"sum_hessian":[3.3647742E2,2.1424818E2,1.2222922E2,1.263565E2,8.789169E1,4.1325874E0,1.18096634E2,1.2421964E2,2.136855E0,1.6078165E0,8.6283875E1,1.0502183E0,3.0823693E0],"tree_param":{"num_deleted":"0","num_feature":"13","num_nodes":"13","size_leaf_vector":"1"}},{"base_weights":[-1.8481474E-2,5.43663E-1,-4.428391E-2,1.380199E0,-5.349371E-1,1.18483715E-2,6.0075067E-2,-3.0195018E-2,2.3531107E-2],"categories":[3,4,5,6,7,8,9],"categories_nodes":[1],"categories_segments":[0],"categories_sizes":[7],"default_left":[0,1,0,0,0,0,0,0,0],"id":17,"left_children":[1,3,-1,5,7,-1,-1,-1,-1],"loss_changes":[1.9700165E2,1.956966E2,0E0,1.059668E1,2.1534616E1,0E0,0E0,0E0,0E0],"parents":[2147483647,0,0,1,1,3,3,4,4],"right_children":[2,4,-1,6,8,-1,-1,-1,-1],"split_conditions":[5.0567E-2,1E-45,-4.428391E-2,1.7895469E-1,6.02807E-1,1.18483715E-2,6.0075067E-2,-3.0195018E-2,2.3531107E-2],"split_indices":[4,3,0,5,5,0,0,0,0],"split_type":[0,1,0,0,0,0,0,0,0],"sum_hessian":[3.2864978E2,2.1507109E2,1.13578674E2,1.2097005E2,9.410104E1,8.840154E0,1.1212989E2,7.9974174E1,1.4126874E1],"tree_param":{"num_deleted":"0","num_feature":"13","num_nodes":"9","size_leaf_vector":"1"}},{"base_weights":[-2.3538511E-2,5.6003755E-1,-1.0477239E0,7.9828954E-1,-9.959638E-1,-3.66241E-1,-4.391651E-2,5.0459005E-2,2.00789E-2,-1.0159276E-2,-4.2778444E-2,3.2963276E-2,-3.578417E-2],"categories":[],"categories_nodes":[],"categories_segments":[],"categories_sizes":[],"default_left":[0,0,0,0,0,0,0,0,0,0,0,0,0],"id":18,"left_children":[1,3,5,7,9,11,-1,-1,-1,-1,-1,-1,-1],"loss_changes":[1.9268803E2,7.6939415E1,1.3414459E0,2.3192299E1,6.921787E-1,3.7332606E0,0E0,0E0,0E0,0E0,0E0,0E0,0E0],"parents":[2147483647,0,0,1,1,2,2,3,3,4,4,5,5],"right_children":[2,4,6,8,10,12,-1,-1,-1,-1,-1,-1,-1],"split_conditions":[2.22E1,1.0375489E0,2.2204E1,9.967423E0,1.0541334E0,5.414705E1,-4.391651E-2,5.0459005E-2,2.00789E-2,-1.0159276E-2,-4.2778444E-2,3.2963276E-2,-3.578417E-2],"split_indices":[0,9,0,7,9,10,0,0,0,0,0,0,0],"split_type":[0,0,0,0,0,0,0,0,0,0,0,0,0],"sum_hessian":[3.2040616E2,2.0439565E2,1.16010506E2,1.7767705E2,2.6718609E1,4.137286E0,1.11873215E2,7.304593E1,1.0463111E2,1.9089551E0,2.4809654E1,1.0707085E0,3.0665774E0],"tree_param":{"num_deleted":"0","num_feature":"13","num_nodes":"13","size_leaf_vector":"1"}},{"base_weights":[-1.152151E-2,5.4867256E-1,-1.0629766E0,1.597826E0,-1.0183344E0,-1.1902827E-2,-4.4085566E-2,6.71866E-2,2.135176E-2,6.1017033E-3,-4.352532E-2],"categories":[],"categories_nodes":[],"categories_segments":[],"categories_sizes":[],"default_left":[0,0,0,0,0,0,0,0,0,0,0],"id":19,"left_children":[1,3,5,7,9,-1,-1,-1,-1,-1,-1],"loss_changes":[1.8894418E2,3.457096E2,6.024246E-1,4.3415833E0,4.2613297E0,0E0,0E0,0E0,0E0,0E0,0E0],"parents":[2147483647,0,0,1,1,2,2,3,3,4,4],"right_children":[2,4,6,8,10,-1,-1,-1,-1,-1,-1],"split_conditions":[4.97576E-2,2.22E1,5.0567E-2,2.2E1,2.2204E1,-1.1902827E-2,-4.4085566E-2,6.71866E-2,2.135176E-2,6.1017033E-3,-4.352532E-2],"split_indices":[4,0,4,0,0,0,0,0,0,0,0],"split_type":[0,0,0,0,0,0,0,0,0,0,0],"sum_hessian":[3.187876E2,2.08292E2,1.10495605E2,1.24749306E2,8.3542694E1,1.877693E0,1.0861791E2,1.19967674E2,4.7816277E0,2.7870483E0,8.0755646E1],"tree_param":{"num_deleted":"0","num_feature":"13","num_nodes":"11","size_leaf_vector":"1"}},{"base_weights":[-1.3744352E-2,5.365085E-1,-1.0584853E0,1.5265322E0,-4.333502E-2,-1.161831E-2,-4.392237E-2,6.541725E-2,1.7367316E-2],"categories":[],"categories_nodes":[],"categories_segments":[],"categories_sizes":[],"default_left":[0,0,0,0,0,0,0,0,0],"id":20,"left_children":[1,3,5,7,-1,-1,-1,-1,-1],"loss_changes":[1.7804178E2,3.2133258E2,6.1844635E-1,8.538055E0,0E0,0E0,0E0,0E0,0E0],"parents":[2147483647,0,0,1,1,2,2,3,3],"right_children":[2,4,6,8,-1,-1,-1,-1,-1],"split_conditions":[4.97576E-2,2.2204E1,5.0567E-2,2.2E1,-4.333502E-2,-1.161831E-2,-4.392237E-2,6.541725E-2,1.7367316E-2],"split_indices":[4,0,4,0,0,0,0,0,0],"split_type":[0,0,0,0,0,0,0,0,0],"sum_hessian":[3.0771915E2,2.0187854E2,1.0584061E2,1.2449187E2,7.738668E1,1.869346E0,1.0397126E2,1.1699695E2,7.494917E0],"tree_param":{"num_deleted":"0","num_feature":"13","num_nodes":"9","size_leaf_vector":"1"}},{"base_weights":[-1.1778892E-2,5.1949334E-1,-4.3767106E-2,1.5029503E0,-1.0073863E0,6.323429E-2,2.0474218E-2,2.9161957E-3,-4.3161582E-2],"categories":[],"categories_nodes":[],"categories_segments":[],"categories_sizes":[],"default_left":[0,0,0,0,0,0,0,0,0],"id":21,"left_children":[1,3,-1,5,7,-1,-1,-1,-1],"loss_changes":[1.6882317E2,3.0253192E2,0E0,3.7703247E0,3.8028336E0,0E0,0E0,0E0,0E0],"parents":[2147483647,0,0,1,1,3,3,4,4],"right_children":[2,4,-1,6,8,-1,-1,-1,-1],"split_conditions":[5.0567E-2,2.22E1,-4.3767106E-2,2.2E1,2.2204E1,6.323429E-2,2.0474218E-2,2.9161957E-3,-4.3161582E-2],"split_indices":[4,0,0,0,0,0,0,0,0],"split_type":[0,0,0,0,0,0,0,0,0],"sum_hessian":[2.9949042E2,1.99462E2,1.00028404E2,1.213297E2,7.81323E1,1.1651167E2,4.818031E0,3.0177016E0,7.51146E1],"tree_param":{"num_deleted":"0","num_feature":"13","num_nodes":"9","size_leaf_vector":"1"}},{"base_weights":[-2.2704987E-2,4.9587357E-1,-4.361822E-2,1.4601123E0,-1.0026331E0,6.173606E-2,1.6598541E-2,2.8222278E-3,-4.3000575E-2],"categories":[],"categories_nodes":[],"categories_segments":[],"categories_sizes":[],"default_left":[0,0,0,0,0,0,0,0,0],"id":22,"left_children":[1,3,-1,5,7,-1,-1,-1,-1],"loss_changes":[1.5831624E2,2.846252E2,0E0,4.861389E0,3.7599945E0,0E0,0E0,0E0,0E0],"parents":[2147483647,0,0,1,1,3,3,4,4],"right_children":[2,4,-1,6,8,-1,-1,-1,-1],"split_conditions":[5.0567E-2,2.22E1,-4.361822E-2,2.2E1,2.2204E1,6.173606E-2,1.6598541E-2,2.8222278E-3,-4.3000575E-2],"split_indices":[4,0,0,0,0,0,0,0,0],"split_type":[0,0,0,0,0,0,0,0,0],"sum_hessian":[2.9171396E2,1.9497044E2,9.6743515E1,1.18649254E2,7.632119E1,1.1356939E2,5.0798664E0,3.0233092E0,7.329788E1],"tree_param":{"num_deleted":"0","num_feature":"13","num_nodes":"9","size_leaf_vector":"1"}},{"base_weights":[-2.2071257E-2,4.9969375E-1,-1.047706E0,1.4684066E0,-9.663381E-1,-1.3270794E-2,-4.3473627E-2,6.1029717E-2,2.0788383E-2,5.0544264E-3,-4.2816482E-2],"categories":[],"categories_nodes":[],"categories_segments":[],"categories_sizes":[],"default_left":[0,0,0,0,0,0,0,0,0,0,0],"id":23,"left_children":[1,3,5,7,9,-1,-1,-1,-1,-1,-1],"loss_changes":[1.5230037E2,2.6935303E2,4.2036438E-1,1.1993866E0,6.420685E0,0E0,0E0,0E0,0E0,0E0,0E0],"parents":[2147483647,0,0,1,1,2,2,3,3,4,4],"right_children":[2,4,6,8,10,-1,-1,-1,-1,-1,-1],"split_conditions":[4.97576E-2,2.207E1,5.0567E-2,2.2E1,2.2204E1,-1.3270794E-2,-4.3473627E-2,6.1029717E-2,2.0788383E-2,5.0544264E-3,-4.2816482E-2],"split_indices":[4,0,4,0,0,0,0,0,0,0,0],"split_type":[0,0,0,0,0,0,0,0,0,0,0],"sum_hessian":[2.8262064E2,1.8766417E2,9.4956474E1,1.1299718E2,7.466699E1,1.870247E0,9.308623E1,1.1041061E2,2.5865686E0,4.8490105E0,6.9817986E1],"tree_param":{"num_deleted":"0","num_feature":"13","num_nodes":"11","size_leaf_vector":"1"}},{"base_weights":[-1.580243E-2,4.8939094E-1,-4.3335713E-2,1.3970042E0,-9.9110496E-1,5.9160836E-2,1.5481888E-2,2.6059323E-3,-4.265535E-2],"categories":[],"categories_nodes":[],"categories_segments":[],"categories_sizes":[],"default_left":[0,0,0,0,0,0,0,0,0],"id":24,"left_children":[1,3,-1,5,7,-1,-1,-1,-1],"loss_changes":[1.4572784E2,2.523402E2,0E0,4.6344147E0,3.661415E0,0E0,0E0,0E0,0E0],"parents":[2147483647,0,0,1,1,3,3,4,4],"right_children":[2,4,-1,6,8,-1,-1,-1,-1],"split_conditions":[5.0567E-2,2.22E1,-4.3335713E-2,2.2E1,2.2204E1,5.9160836E-2,1.5481888E-2,2.6059323E-3,-4.265535E-2],"split_indices":[4,0,0,0,0,0,0,0,0],"split_type":[0,0,0,0,0,0,0,0,0],"sum_hessian":[2.7551157E2,1.8576213E2,8.974944E1,1.1519722E2,7.05649E1,1.1007052E2,5.126705E0,3.0357373E0,6.752917E1],"tree_param":{"num_deleted":"0","num_feature":"13","num_nodes":"9","size_leaf_vector":"1"}},{"base_weights":[-1.3451949E-2,4.855986E-1,-4.3198064E-2,1.3675238E0,-9.9810296E-1,5.797583E-2,1.48823345E-2,-5.022502E-3,-4.2475134E-2],"categories":[],"categories_nodes":[],"categories_segments":[],"categories_sizes":[],"default_left":[0,0,0,0,0,0,0,0,0],"id":25,"left_children":[1,3,-1,5,7,-1,-1,-1,-1],"loss_changes":[1.3880334E2,2.3809065E2,0E0,4.560318E0,2.033371E0,0E0,0E0,0E0,0E0],"parents":[2147483647,0,0,1,1,3,3,4,4],"right_children":[2,4,-1,6,8,-1,-1,-1,-1],"split_conditions":[5.0567E-2,2.22E1,-4.3198064E-2,2.2E1,2.2204E1,5.797583E-2,1.48823345E-2,-5.022502E-3,-4.2475134E-2],"split_indices":[4,0,0,0,0,0,0,0,0],"split_type":[0,0,0,0,0,0,0,0,0],"sum_hessian":[2.658351E2,1.799119E2,8.592323E1,1.1288837E2,6.702353E1,1.0773443E2,5.153939E0,2.8381155E0,6.418542E1],"tree_param":{"num_deleted":"0","num_feature":"13","num_nodes":"9","size_leaf_vector":"1"}},{"base_weights":[-1.660657E-2,4.8065382E-1,-4.307496E-2,1.3400031E0,-9.7870666E-1,5.6885216E-2,1.4309173E-2,3.694327E-3,-4.2311776E-2],"categories":[],"categories_nodes":[],"categories_segments":[],"categories_sizes":[],"default_left":[0,0,0,0,0,0,0,0,0],"id":26,"left_children":[1,3,-1,5,7,-1,-1,-1,-1],"loss_changes":[1.3353662E2,2.2151398E2,0E0,4.4968414E0,3.718151E0,0E0,0E0,0E0,0E0],"parents":[2147483647,0,0,1,1,3,3,4,4],"right_children":[2,4,-1,6,8,-1,-1,-1,-1],"split_conditions":[5.0567E-2,2.22E1,-4.307496E-2,2.2E1,2.2204E1,5.6885216E-2,1.4309173E-2,3.694327E-3,-4.2311776E-2],"split_indices":[4,0,0,0,0,0,0,0,0],"split_type":[0,0,0,0,0,0,0,0,0],"sum_hessian":[2.581452E2,1.7458603E2,8.3559166E1,1.0993325E2,6.465278E1,1.0475349E2,5.179765E0,2.9477768E0,6.1705E1],"tree_param":{"num_deleted":"0","num_feature":"13","num_nodes":"9","size_leaf_vector":"1"}},{"base_weights":[-1.4680254E-2,4.6811E-1,-4.2943254E-2,1.3145365E0,-9.743819E-1,5.5868912E-2,1.3760945E-2,2.5648868E-3,-4.217132E-2],"categories":[],"categories_nodes":[],"categories_segments":[],"categories_sizes":[],"default_left":[0,0,0,0,0,0,0,0,0],"id":27,"left_children":[1,3,-1,5,7,-1,-1,-1,-1],"loss_changes":[1.2561964E2,2.1115878E2,0E0,4.4426117E0,3.5607185E0,0E0,0E0,0E0,0E0],"parents":[2147483647,0,0,1,1,3,3,4,4],"right_children":[2,4,-1,6,8,-1,-1,-1,-1],"split_conditions":[5.0567E-2,2.22E1,-4.2943254E-2,2.2E1,2.2204E1,5.5868912E-2,1.3760945E-2,2.5648868E-3,-4.217132E-2],"split_indices":[4,0,0,0,0,0,0,0,0],"split_type":[0,0,0,0,0,0,0,0,0],"sum_hessian":[2.5036917E2,1.7089537E2,7.94738E1,1.07755325E2,6.3140045E1,1.0255106E2,5.2042627E0,3.0381973E0,6.010185E1],"tree_param":{"num_deleted":"0","num_feature":"13","num_nodes":"9","size_leaf_vector":"1"}},{"base_weights":[-7.344722E-3,4.75713E-1,-1.023342E0,1.2841661E0,-1.0233319E0,-2.0988178E-1,-4.2821527E-2,5.573547E-2,1.2653722E-2,-1.714139E-2,-4.267515E-2,1.9502446E-2,-3.258085E-2],"categories":[0,1,3,4,5,6,7,8,9],"categories_nodes":[4],"categories_segments":[0],"categories_sizes":[9],"default_left":[0,0,0,0,1,0,0,0,0,0,0,0,0],"id":28,"left_children":[1,3,5,7,9,11,-1,-1,-1,-1,-1,-1,-1],"loss_changes":[1.208918E2,2.0365176E2,1.0370483E0,7.352829E0,1.3498306E-1,1.6178334E0,0E0,0E0,0E0,0E0,0E0,0E0,0E0],"parents":[2147483647,0,0,1,1,2,2,3,3,4,4,5,5],"right_children":[2,4,6,8,10,12,-1,-1,-1,-1,-1,-1,-1],"split_conditions":[4.97576E-2,2.2204E1,5.0567E-2,2.2E1,1E-45,1.09826454E2,-4.2821527E-2,5.573547E-2,1.2653722E-2,-1.714139E-2,-4.267515E-2,1.9502446E-2,-3.258085E-2],"split_indices":[4,0,4,0,3,11,0,0,0,0,0,0,0],"split_type":[0,0,0,0,1,0,0,0,0,0,0,0,0],"sum_hessian":[2.4433122E2,1.6595798E2,7.837324E1,1.079062E2,5.805178E1,2.1056204E0,7.626762E1,1.0002335E2,7.882843E0,2.181031E0,5.5870747E1,1.0543703E0,1.05125E0],"tree_param":{"num_deleted":"0","num_feature":"13","num_nodes":"13","size_leaf_vector":"1"}},{"base_weights":[-1.1420069E-2,4.6818894E-1,-1.0199189E0,1.2638088E0,-1.019647E0,-2.0633622E-1,-4.270516E-2,5.4858208E-2,1.303946E-2,-1.6834175E-2,-4.2546973E-2,1.9080207E-2,-3.2103963E-2],"categories":[0,1,3,4,5,6,7,8,9],"categories_nodes":[4],"categories_segments":[0],"categories_sizes":[9],"default_left":[0,0,0,0,1,0,0,0,0,0,0,0,0],"id":29,"left_children":[1,3,5,7,9,11,-1,-1,-1,-1,-1,-1,-1],"loss_changes":[1.1525748E2,1.9247281E2,1.0375671E0,6.786209E0,1.4556122E-1,1.5578194E0,0E0,0E0,0E0,0E0,0E0,0E0,0E0],"parents":[2147483647,0,0,1,1,2,2,3,3,4,4,5,5],"right_children":[2,4,6,8,10,12,-1,-1,-1,-1,-1,-1,-1],"split_conditions":[4.97576E-2,2.2204E1,5.0567E-2,2.2E1,1E-45,1.09826454E2,-4.270516E-2,5.4858208E-2,1.303946E-2,-1.6834175E-2,-4.2546973E-2,1.9080207E-2,-3.2103963E-2],"split_indices":[4,0,4,0,3,11,0,0,0,0,0,0,0],"split_type":[0,0,0,0,1,0,0,0,0,0,0,0,0],"sum_hessian":[2.3630305E2,1.6050697E2,7.57961E1,1.04679955E2,5.582701E1,2.0937352E0,7.370236E1,9.688581E1,7.7941484E0,2.148567E0,5.3678444E1,1.055553E0,1.0381823E0],"tree_param":{"num_deleted":"0","num_feature":"13","num_nodes":"13","size_leaf_vector":"1"}},{"base_weights":[-1.7172638E-2,4.51268E-1,-4.259452E-2,1.0463568E0,-5.705293E-1,7.9697985E-3,4.5745347E-2,-3.0088134E-2,1.972804E-2],"categories":[4,5,6,7,8,9],"categories_nodes":[1],"categories_segments":[0],"categories_sizes":[6],"default_left":[0,1,0,0,0,0,0,0,0],"id":30,"left_children":[1,3,-1,5,7,-1,-1,-1,-1],"loss_changes":[1.09624405E2,9.6208725E1,0E0,5.532341E0,1.0326105E1,0E0,0E0,0E0,0E0],"parents":[2147483647,0,0,1,1,3,3,4,4],"right_children":[2,4,-1,6,8,-1,-1,-1,-1],"split_conditions":[5.0567E-2,1E-45,-4.259452E-2,1.7895469E-1,1.919763E1,7.9697985E-3,4.5745347E-2,-3.0088134E-2,1.972804E-2],"split_indices":[4,3,0,5,7,0,0,0,0],"split_type":[0,1,0,0,0,0,0,0,0],"sum_hessian":[2.2743082E2,1.562406E2,7.119022E1,9.872165E1,5.751895E1,7.543122E0,9.117853E1,5.0091743E1,7.4272094E0],"tree_param":{"num_deleted":"0","num_feature":"13","num_nodes":"9","size_leaf_vector":"1"}},{"base_weights":[-1.2596108E-2,4.532142E-1,-4.2005535E-2,1.2319878E0,-1.0036209E0,5.355801E-2,1.2943763E-2,-6.8464084E-3,-4.2310197E-2],"categories":[],"categories_nodes":[],"categories_segments":[],"categories_sizes":[],"default_left":[0,0,0,0,0,0,0,0,0],"id":31,"left_children":[1,3,-1,5,7,-1,-1,-1,-1],"loss_changes":[1.06414665E2,1.7684276E2,0E0,6.300598E0,1.0462723E0,0E0,0E0,0E0,0E0],"parents":[2147483647,0,0,1,1,3,3,4,4],"right_children":[2,4,-1,6,8,-1,-1,-1,-1],"split_conditions":[2.2204E1,4.97576E-2,-4.2005535E-2,2.2E1,5.0567E-2,5.355801E-2,1.2943763E-2,-6.8464084E-3,-4.2310197E-2],"split_indices":[0,4,0,0,4,0,0,0,0],"split_type":[0,0,0,0,0,0,0,0,0],"sum_hessian":[2.2413065E2,1.537813E2,7.034936E1,1.003122E2,5.346909E1,9.259143E1,7.7207704E0,1.878344E0,5.1590748E1],"tree_param":{"num_deleted":"0","num_feature":"13","num_nodes":"9","size_leaf_vector":"1"}},{"base_weights":[-1.0194915E-2,4.5093548E-1,-4.1870117E-2,1.1935799E0,-4.2190634E-2,5.270451E-2,7.9020485E-3],"categories":[],"categories_nodes":[],"categories_segments":[],"categories_sizes":[],"default_left":[0,0,0,0,0,0,0],"id":32,"left_children":[1,3,-1,5,-1,-1,-1],"loss_changes":[1.01550095E2,1.656563E2,0E0,8.765503E0,0E0,0E0,0E0],"parents":[2147483647,0,0,1,1,3,3],"right_children":[2,4,-1,6,-1,-1,-1],"split_conditions":[2.2204E1,5.0567E-2,-4.1870117E-2,2.2E1,-4.2190634E-2,5.270451E-2,7.9020485E-3],"split_indices":[0,4,0,0,0,0,0],"split_type":[0,0,0,0,0,0,0],"sum_hessian":[2.1617494E2,1.4876775E2,6.74072E1,9.915213E1,4.961561E1,9.0724724E1,8.427408E0],"tree_param":{"num_deleted":"0","num_feature":"13","num_nodes":"7","size_leaf_vector":"1"}},{"base_weights":[-1.3934461E-2,4.6400163E-1,-9.9634093E-1,6.291259E-1,-4.003154E-2,-4.1430168E-2,-2.9320517E-3,3.8952205E-2,1.6805196E-2],"categories":[],"categories_nodes":[],"categories_segments":[],"categories_sizes":[],"default_left":[0,0,0,0,0,0,0,0,0],"id":33,"left_children":[1,3,5,7,-1,-1,-1,-1,-1],"loss_changes":[9.988415E1,3.4619625E1,7.3737335E-1,8.673035E0,0E0,0E0,0E0,0E0,0E0],"parents":[2147483647,0,0,1,1,2,2,3,3],"right_children":[2,4,6,8,-1,-1,-1,-1,-1],"split_conditions":[2.22E1,1.0541334E0,3.5582712E2,9.340561E0,-4.003154E-2,-4.1430168E-2,-2.9320517E-3,3.8952205E-2,1.6805196E-2],"split_indices":[0,9,11,7,0,0,0,0,0],"split_type":[0,0,0,0,0,0,0,0,0],"sum_hessian":[2.107487E2,1.4213055E2,6.861816E1,1.280035E2,1.4127054E1,6.760857E1,1.0095901E0,5.0836216E1,7.716728E1],"tree_param":{"num_deleted":"0","num_feature":"13","num_nodes":"9","size_leaf_vector":"1"}},{"base_weights":[-8.966907E-3,4.540265E-1,-1.0087894E0,1.1880322E0,-1.0041718E0,-2.574617E-1,-4.2254746E-2,5.2293677E-2,9.73054E-3,-1.4894429E-2,-4.202866E-2,1.6323961E-2,-3.2653544E-2],"categories":[0,1,3,4,5,6,7,8,9],"categories_nodes":[4],"categories_segments":[0],"categories_sizes":[9],"default_left":[0,0,0,0,1,0,0,0,0,0,0,0,0],"id":34,"left_children":[1,3,5,7,9,11,-1,-1,-1,-1,-1,-1,-1],"loss_changes":[9.6232574E1,1.5328783E2,7.3371124E-1,7.415207E0,2.2493744E-1,1.3925837E0,0E0,0E0,0E0,0E0,0E0,0E0,0E0],"parents":[2147483647,0,0,1,1,2,2,3,3,4,4,5,5],"right_children":[2,4,6,8,10,12,-1,-1,-1,-1,-1,-1,-1],"split_conditions":[4.97576E-2,2.2204E1,5.0567E-2,2.2E1,1E-45,1.09826454E2,-4.2254746E-2,5.2293677E-2,9.73054E-3,-1.4894429E-2,-4.202866E-2,1.6323961E-2,-3.2653544E-2],"split_indices":[4,0,4,0,3,11,0,0,0,0,0,0,0],"split_type":[0,0,0,0,1,0,0,0,0,0,0,0,0],"sum_hessian":[2.0589615E2,1.4110143E2,6.479472E1,9.3980316E1,4.712111E1,2.0564644E0,6.2738262E1,8.592348E1,8.056837E0,1.9554375E0,4.5165672E1,1.0446846E0,1.0117798E0],"tree_param":{"num_deleted":"0","num_feature":"13","num_nodes":"13","size_leaf_vector":"1"}},{"base_weights":[-2.1349724E-2,4.350954E-1,-1.0054861E0,1.1634457E0,-1.0009633E0,-9.362816E-3,-4.215348E-2,5.119147E-2,1.0516474E-2,-1.4073145E-2,-4.192324E-2],"categories":[0,1,3,4,5,6,7,8,9],"categories_nodes":[4],"categories_segments":[0],"categories_sizes":[9],"default_left":[0,0,0,0,1,0,0,0,0,0,0],"id":35,"left_children":[1,3,5,7,9,-1,-1,-1,-1,-1,-1],"loss_changes":[8.992092E1,1.4423517E2,8.0332947E-1,6.5646667E0,2.618065E-1,0E0,0E0,0E0,0E0,0E0,0E0],"parents":[2147483647,0,0,1,1,2,2,3,3,4,4],"right_children":[2,4,6,8,10,-1,-1,-1,-1,-1,-1],"split_conditions":[4.97576E-2,2.2204E1,5.0567E-2,2.2E1,1E-45,-9.362816E-3,-4.215348E-2,5.119147E-2,1.0516474E-2,-1.4073145E-2,-4.192324E-2],"split_indices":[4,0,4,0,3,0,0,0,0,0,0],"split_type":[0,0,0,0,1,0,0,0,0,0,0],"sum_hessian":[1.9820433E2,1.3578484E2,6.2419487E1,9.021752E1,4.5567314E1,1.9564807E0,6.046301E1,8.229951E1,7.9180117E0,1.8754696E0,4.3691845E1],"tree_param":{"num_deleted":"0","num_feature":"13","num_nodes":"11","size_leaf_vector":"1"}},{"base_weights":[-1.1977595E-2,4.4596812E-1,-1.0027194E0,1.1533773E0,-9.974168E-1,-2.4729419E-1,-4.2062946E-2,5.062766E-2,1.1187235E-2,-1.4358981E-2,-4.180836E-2,1.7809898E-3,-1.7171502E-2],"categories":[0,1,3,4,5,6,7,8,9],"categories_nodes":[4],"categories_segments":[0],"categories_sizes":[9],"default_left":[0,0,0,0,1,0,0,0,0,0,0,0,0],"id":36,"left_children":[1,3,5,7,9,11,-1,-1,-1,-1,-1,-1,-1],"loss_changes":[8.894618E1,1.3806512E2,7.5787354E-1,5.9997864E0,2.4264145E-1,1.6916464E-1,0E0,0E0,0E0,0E0,0E0,0E0,0E0],"parents":[2147483647,0,0,1,1,2,2,3,3,4,4,5,5],"right_children":[2,4,6,8,10,12,-1,-1,-1,-1,-1,-1,-1],"split_conditions":[4.97576E-2,2.2204E1,5.0567E-2,2.2E1,1E-45,3.0653643E4,-4.2062946E-2,5.062766E-2,1.1187235E-2,-1.4358981E-2,-4.180836E-2,1.7809898E-3,-1.7171502E-2],"split_indices":[4,0,4,0,3,1,0,0,0,0,0,0,0],"split_type":[0,0,0,0,1,0,0,0,0,0,0,0,0],"sum_hessian":[1.9405806E2,1.3309027E2,6.0967796E1,8.9450905E1,4.363936E1,2.0409315E0,5.8926865E1,8.167925E1,7.7716527E0,1.9057199E0,4.173364E1,1.031836E0,1.0090954E0],"tree_param":{"num_deleted":"0","num_feature":"13","num_nodes":"13","size_leaf_vector":"1"}},{"base_weights":[-1.596959E-2,4.2476606E-1,-9.987078E-1,1.1949059E0,-8.8881487E-1,-2.4245527E-1,-4.195278E-2,5.0070617E-2,1.3938271E-2,-2.7494066E-4,-4.0846232E-2,1.7436169E-3,-1.6845945E-2],"categories":[],"categories_nodes":[],"categories_segments":[],"categories_sizes":[],"default_left":[0,0,0,0,0,0,0,0,0,0,0,0,0],"id":37,"left_children":[1,3,5,7,9,11,-1,-1,-1,-1,-1,-1,-1],"loss_changes":[8.208662E1,1.3345215E2,7.6976776E-1,1.3183746E0,4.5642433E0,1.6263674E-1,0E0,0E0,0E0,0E0,0E0,0E0,0E0],"parents":[2147483647,0,0,1,1,2,2,3,3,4,4,5,5],"right_children":[2,4,6,8,10,12,-1,-1,-1,-1,-1,-1,-1],"split_conditions":[4.97576E-2,2.207E1,5.0567E-2,2.2E1,2.2204E1,3.0653643E4,-4.195278E-2,5.0070617E-2,1.3938271E-2,-2.7494066E-4,-4.0846232E-2,1.7436169E-3,-1.6845945E-2],"split_indices":[4,0,4,0,0,1,0,0,0,0,0,0,0],"split_type":[0,0,0,0,0,0,0,0,0,0,0,0,0],"sum_hessian":[1.8754115E2,1.2986668E2,5.767447E1,8.192512E1,4.794156E1,2.0378537E0,5.5636616E1,7.9238106E1,2.6870117E0,5.2514706E0,4.269009E1,1.0321002E0,1.0057535E0],"tree_param":{"num_deleted":"0","num_feature":"13","num_nodes":"13","size_leaf_vector":"1"}},{"base_weights":[-1.4635103E-2,4.3060508E-1,-9.9564487E-1,1.12118E0,-9.9065554E-1,-2.3772109E-1,-4.1861806E-2,4.953811E-2,1.0671114E-2,-1.1684473E-2,-4.1600335E-2,1.7070299E-3,-1.6527183E-2],"categories":[0,1,3,4,5,6,7,8,9],"categories_nodes":[4],"categories_segments":[0],"categories_sizes":[9],"default_left":[0,0,0,0,1,0,0,0,0,0,0,0,0],"id":38,"left_children":[1,3,5,7,9,11,-1,-1,-1,-1,-1,-1,-1],"loss_changes":[7.96147E1,1.2418497E2,7.8302765E-1,5.912155E0,3.686943E-1,1.563702E-1,0E0,0E0,0E0,0E0,0E0,0E0,0E0],"parents":[2147483647,0,0,1,1,2,2,3,3,4,4,5,5],"right_children":[2,4,6,8,10,12,-1,-1,-1,-1,-1,-1,-1],"split_conditions":[4.97576E-2,2.2204E1,5.0567E-2,2.2E1,1E-45,3.0653643E4,-4.1861806E-2,4.953811E-2,1.0671114E-2,-1.1684473E-2,-4.1600335E-2,1.7070299E-3,-1.6527183E-2],"split_indices":[4,0,4,0,3,1,0,0,0,0,0,0,0],"split_type":[0,0,0,0,1,0,0,0,0,0,0,0,0],"sum_hessian":[1.8029282E2,1.2439574E2,5.5897076E1,8.386015E1,4.053559E1,2.034769E0,5.386231E1,7.594892E1,7.9112325E0,1.6676555E0,3.8867935E1,1.0323578E0,1.0024111E0],"tree_param":{"num_deleted":"0","num_feature":"13","num_nodes":"13","size_leaf_vector":"1"}},{"base_weights":[-1.850864E-2,4.203932E-1,-9.9232477E-1,1.1679565E0,-8.708856E-1,-9.571631E-3,-4.176818E-2,4.9039584E-2,1.3170021E-2,2.9556798E-3,-4.0557034E-2],"categories":[],"categories_nodes":[],"categories_segments":[],"categories_sizes":[],"default_left":[0,0,0,0,0,0,0,0,0,0,0],"id":39,"left_children":[1,3,5,7,9,-1,-1,-1,-1,-1,-1],"loss_changes":[7.539011E1,1.1841638E2,7.9536057E-1,1.3401642E0,5.043392E0,0E0,0E0,0E0,0E0,0E0,0E0],"parents":[2147483647,0,0,1,1,2,2,3,3,4,4],"right_children":[2,4,6,8,10,-1,-1,-1,-1,-1,-1],"split_conditions":[4.97576E-2,2.207E1,5.0567E-2,2.2E1,2.2204E1,-9.571631E-3,-4.176818E-2,4.9039584E-2,1.3170021E-2,2.9556798E-3,-4.0557034E-2],"split_indices":[4,0,4,0,0,0,0,0,0,0,0],"split_type":[0,0,0,0,0,0,0,0,0,0,0],"sum_hessian":[1.7441234E2,1.2061783E2,5.379451E1,7.64525E1,4.4165337E1,2.0316792E0,5.1762833E1,7.375692E1,2.695573E0,4.9089513E0,3.9256386E1],"tree_param":{"num_deleted":"0","num_feature":"13","num_nodes":"11","size_leaf_vector":"1"}},{"base_weights":[-1.6700426E-2,4.07962E-1,-4.1677464E-2,1.1422895E0,-8.50836E-1,4.7991082E-2,1.27604995E-2,2.365809E-3,-4.042655E-2],"categories":[],"categories_nodes":[],"categories_segments":[],"categories_sizes":[],"default_left":[0,0,0,0,0,0,0,0,0],"id":40,"left_children":[1,3,-1,5,7,-1,-1,-1,-1],"loss_changes":[7.2274796E1,1.115624E2,0E0,1.3045425E0,5.47744E0,0E0,0E0,0E0,0E0],"parents":[2147483647,0,0,1,1,3,3,4,4],"right_children":[2,4,-1,6,8,-1,-1,-1,-1],"split_conditions":[5.0567E-2,2.207E1,-4.1677464E-2,2.2E1,2.2204E1,4.7991082E-2,1.27604995E-2,2.365809E-3,-4.042655E-2],"split_indices":[4,0,0,0,0,0,0,0,0],"split_type":[0,0,0,0,0,0,0,0,0],"sum_hessian":[1.685181E2,1.1863878E2,4.987932E1,7.498714E1,4.365165E1,7.228729E1,2.6998396E0,5.6707554E0,3.7980892E1],"tree_param":{"num_deleted":"0","num_feature":"13","num_nodes":"9","size_leaf_vector":"1"}},{"base_weights":[-2.2667248E-2,3.9398408E-1,-4.1584603E-2,1.156285E0,-7.899135E-1,4.8115175E-2,6.604884E-3,2.8795945E-3,-4.0302433E-2],"categories":[],"categories_nodes":[],"categories_segments":[],"categories_sizes":[],"default_left":[0,0,0,0,0,0,0,0,0],"id":41,"left_children":[1,3,-1,5,7,-1,-1,-1,-1],"loss_changes":[6.805985E1,1.0575105E2,0E0,9.0244293E-1,7.661854E0,0E0,0E0,0E0,0E0],"parents":[2147483647,0,0,1,1,3,3,4,4],"right_children":[2,4,-1,6,8,-1,-1,-1,-1],"split_conditions":[5.0567E-2,2.2E1,-4.1584603E-2,4.97576E-2,2.2204E1,4.8115175E-2,6.604884E-3,2.8795945E-3,-4.0302433E-2],"split_indices":[4,0,0,4,0,0,0,0,0],"split_type":[0,0,0,0,0,0,0,0,0],"sum_hessian":[1.6303168E2,1.1516543E2,4.7866257E1,7.007079E1,4.5094627E1,6.882756E1,1.2432357E0,8.329051E0,3.676558E1],"tree_param":{"num_deleted":"0","num_feature":"13","num_nodes":"9","size_leaf_vector":"1"}},{"base_weights":[-2.4681807E-2,4.0331933E-1,-9.8470277E-1,1.0606754E0,-9.77669E-1,-1.0337051E-2,-4.1500546E-2,4.8250686E-2,1.1781926E-2,-1.0846777E-2,-4.122417E-2],"categories":[],"categories_nodes":[],"categories_segments":[],"categories_sizes":[],"default_left":[0,0,0,0,0,0,0,0,0,0,0],"id":42,"left_children":[1,3,5,7,9,-1,-1,-1,-1,-1,-1],"loss_changes":[6.568508E1,1.0144695E2,6.8203735E-1,6.3345337E0,4.1204834E-1,0E0,0E0,0E0,0E0,0E0,0E0],"parents":[2147483647,0,0,1,1,2,2,3,3,4,4],"right_children":[2,4,6,8,10,-1,-1,-1,-1,-1,-1],"split_conditions":[4.97576E-2,2.2204E1,5.0567E-2,2.19E1,4.3811452E-1,-1.0337051E-2,-4.1500546E-2,4.8250686E-2,1.1781926E-2,-1.0846777E-2,-4.122417E-2],"split_indices":[4,0,4,0,9,0,0,0,0,0,0],"split_type":[0,0,0,0,0,0,0,0,0,0,0],"sum_hessian":[1.5789392E2,1.0960789E2,4.8286026E1,7.441702E1,3.519086E1,2.0151901E0,4.6270836E1,6.4385056E1,1.0031969E1,1.6400923E0,3.355077E1],"tree_param":{"num_deleted":"0","num_feature":"13","num_nodes":"11","size_leaf_vector":"1"}},{"base_weights":[-2.0769224E-2,4.0287593E-1,-9.956497E-1,1.1182897E0,-8.2711643E-1,-1.4547454E-2,-4.149486E-2,4.7292616E-2,6.514784E-3,2.9609867E-3,-3.9984025E-2],"categories":[],"categories_nodes":[],"categories_segments":[],"categories_sizes":[],"default_left":[0,0,0,0,0,0,0,0,0,0,0],"id":43,"left_children":[1,3,5,7,9,-1,-1,-1,-1,-1,-1],"loss_changes":[6.3662613E1,9.550786E1,8.631134E-2,2.0080795E0,5.3559513E0,0E0,0E0,0E0,0E0,0E0,0E0],"parents":[2147483647,0,0,1,1,2,2,3,3,4,4],"right_children":[2,4,6,8,10,-1,-1,-1,-1,-1,-1],"split_conditions":[4.97576E-2,2.207E1,1.1851657E1,2.2E1,2.2204E1,-1.4547454E-2,-4.149486E-2,4.7292616E-2,6.514784E-3,2.9609867E-3,-3.9984025E-2],"split_indices":[4,0,8,0,0,0,0,0,0,0,0],"split_type":[0,0,0,0,0,0,0,0,0,0,0],"sum_hessian":[1.5217427E2,1.06486244E2,4.5688038E1,6.738386E1,3.9102386E1,1.5954179E0,4.4092617E1,6.4925125E1,2.458731E0,5.551744E0,3.3550644E1],"tree_param":{"num_deleted":"0","num_feature":"13","num_nodes":"11","size_leaf_vector":"1"}},{"base_weights":[-1.5392497E-2,4.01237E-1,-9.7642094E-1,1.036073E0,-9.708711E-1,-9.075786E-3,-4.1317347E-2,4.6913635E-2,7.408664E-3,-8.661256E-3,-4.1008763E-2],"categories":[0,1,3,4,5,6,7,8,9],"categories_nodes":[4],"categories_segments":[0],"categories_sizes":[9],"default_left":[0,0,0,0,1,0,0,0,0,0,0],"id":44,"left_children":[1,3,5,7,9,-1,-1,-1,-1,-1,-1],"loss_changes":[6.0045807E1,9.215446E1,7.9649353E-1,6.349365E0,4.9899292E-1,0E0,0E0,0E0,0E0,0E0,0E0],"parents":[2147483647,0,0,1,1,2,2,3,3,4,4],"right_children":[2,4,6,8,10,-1,-1,-1,-1,-1,-1],"split_conditions":[4.97576E-2,2.2204E1,5.0567E-2,2.2E1,1E-45,-9.075786E-3,-4.1317347E-2,4.6913635E-2,7.408664E-3,-8.661256E-3,-4.1008763E-2],"split_indices":[4,0,4,0,3,0,0,0,0,0,0],"split_type":[0,0,0,0,1,0,0,0,0,0,0],"sum_hessian":[1.4798877E2,1.0364053E2,4.4348232E1,7.102442E1,3.2616104E1,1.9993448E0,4.234889E1,6.287313E1,8.151295E0,1.453165E0,3.1162941E1],"tree_param":{"num_deleted":"0","num_feature":"13","num_nodes":"11","size_leaf_vector":"1"}},{"base_weights":[-2.326447E-2,3.7187067E-1,-9.814716E-1,5.1719004E-1,-8.819119E-1,-1.1803833E-2,-4.1226823E-2,3.0201947E-2,1.3929086E-2,-1.1494966E-2,-3.790718E-2],"categories":[],"categories_nodes":[],"categories_segments":[],"categories_sizes":[],"default_left":[0,0,0,0,0,0,0,0,0,0,0],"id":45,"left_children":[1,3,5,7,9,-1,-1,-1,-1,-1,-1],"loss_changes":[5.4958355E1,1.918908E1,3.7273788E-1,3.3548145E0,1.5668869E-2,0E0,0E0,0E0,0E0,0E0,0E0],"parents":[2147483647,0,0,1,1,2,2,3,3,4,4],"right_children":[2,4,6,8,10,-1,-1,-1,-1,-1,-1],"split_conditions":[2.2204E1,1.0375489E0,4.3811452E-1,9.967423E0,1.0604428E0,-1.1803833E-2,-4.1226823E-2,3.0201947E-2,1.3929086E-2,-1.1494966E-2,-3.790718E-2],"split_indices":[0,9,9,7,9,0,0,0,0,0,0],"split_type":[0,0,0,0,0,0,0,0,0,0,0],"sum_hessian":[1.4318991E2,1.0181603E2,4.1373886E1,9.1767265E1,1.0048766E1,1.7310684E0,3.964282E1,3.9810314E1,5.195695E1,1.1430675E0,8.905699E0],"tree_param":{"num_deleted":"0","num_feature":"13","num_nodes":"11","size_leaf_vector":"1"}},{"base_weights":[-3.2107223E-2,3.9482194E-1,-9.902208E-1,1.0954473E0,-8.3021986E-1,-1.3838707E-2,-4.1307125E-2,4.6984468E-2,1.689847E-2,-7.63808E-3,-4.149074E-2],"categories":[3,4,5,6,7,8,9],"categories_nodes":[4],"categories_segments":[0],"categories_sizes":[7],"default_left":[0,0,0,0,1,0,0,0,0,0,0],"id":46,"left_children":[1,3,5,7,9,-1,-1,-1,-1,-1,-1],"loss_changes":[5.8178013E1,8.5401146E1,1.103363E-1,1.6303711E0,4.0351562E0,0E0,0E0,0E0,0E0,0E0,0E0],"parents":[2147483647,0,0,1,1,2,2,3,3,4,4],"right_children":[2,4,6,8,10,-1,-1,-1,-1,-1,-1],"split_conditions":[4.97576E-2,2.207E1,1.1851657E1,2.19E1,1E-45,-1.3838707E-2,-4.1307125E-2,4.6984468E-2,1.689847E-2,-7.63808E-3,-4.149074E-2],"split_indices":[4,0,8,0,3,0,0,0,0,0,0],"split_type":[0,0,0,0,1,0,0,0,0,0,0],"sum_hessian":[1.4027254E2,9.744126E1,4.2831272E1,6.2056007E1,3.5385254E1,1.5321549E0,4.1299118E1,5.730105E1,4.754959E0,8.177503E0,2.7207752E1],"tree_param":{"num_deleted":"0","num_feature":"13","num_nodes":"11","size_leaf_vector":"1"}},{"base_weights":[-1.3970109E-2,4.0462148E-1,-9.6951586E-1,1.0114822E0,-9.610266E-1,-8.394369E-3,-4.114567E-2,4.6680458E-2,1.0803854E-2,-7.839138E-3,-4.0751986E-2],"categories":[],"categories_nodes":[],"categories_segments":[],"categories_sizes":[],"default_left":[0,0,0,0,0,0,0,0,0,0,0],"id":47,"left_children":[1,3,5,7,9,-1,-1,-1,-1,-1,-1],"loss_changes":[5.563072E1,8.114495E1,8.474884E-1,6.0263443E0,5.4195213E-1,0E0,0E0,0E0,0E0,0E0,0E0],"parents":[2147483647,0,0,1,1,2,2,3,3,4,4],"right_children":[2,4,6,8,10,-1,-1,-1,-1,-1,-1],"split_conditions":[4.97576E-2,2.2204E1,5.0567E-2,2.19E1,2.4211332E1,-8.394369E-3,-4.114567E-2,4.6680458E-2,1.0803854E-2,-7.839138E-3,-4.0751986E-2],"split_indices":[4,0,4,0,10,0,0,0,0,0,0],"split_type":[0,0,0,0,0,0,0,0,0,0,0],"sum_hessian":[1.3710179E2,9.573858E1,4.1363213E1,6.6463264E1,2.9275316E1,1.9808176E0,3.9382393E1,5.6487896E1,9.975365E0,1.4231013E0,2.7852215E1],"tree_param":{"num_deleted":"0","num_feature":"13","num_nodes":"11","size_leaf_vector":"1"}},{"base_weights":[-1.8380364E-2,3.8204795E-1,-4.1058842E-2,1.0840955E0,-7.3255634E-1,4.5701806E-2,-4.8808366E-4,-1.1025317E-3,-4.060313E-2],"categories":[3,4,5,6,7,8,9],"categories_nodes":[4],"categories_segments":[0],"categories_sizes":[7],"default_left":[0,0,0,0,1,0,0,0,0],"id":48,"left_children":[1,3,-1,5,7,-1,-1,-1,-1],"loss_changes":[5.258131E1,7.5175476E1,0E0,1.8693085E0,6.7233696E0,0E0,0E0,0E0,0E0],"parents":[2147483647,0,0,1,1,3,3,4,4],"right_children":[2,4,-1,6,8,-1,-1,-1,-1],"split_conditions":[5.0567E-2,2.2E1,-4.1058842E-2,4.97576E-2,1E-45,4.5701806E-2,-4.8808366E-4,-1.1025317E-3,-4.060313E-2],"split_indices":[4,0,0,4,3,0,0,0,0],"split_type":[0,0,0,0,1,0,0,0,0],"sum_hessian":[1.3181741E2,9.405537E1,3.7762047E1,5.772434E1,3.6331028E1,5.62293E1,1.4950386E0,9.971288E0,2.635974E1],"tree_param":{"num_deleted":"0","num_feature":"13","num_nodes":"9","size_leaf_vector":"1"}},{"base_weights":[-2.1925189E-2,3.7065116E-1,-4.0967245E-2,1.0751536E0,-7.2561425E-1,4.536951E-2,-4.7607292E-4,1.8934094E-3,-3.920767E-2],"categories":[],"categories_nodes":[],"categories_segments":[],"categories_sizes":[],"default_left":[0,0,0,0,0,0,0,0,0],"id":49,"left_children":[1,3,-1,5,7,-1,-1,-1,-1],"loss_changes":[4.9574165E1,7.208897E1,0E0,1.8393173E0,6.5380917E0,0E0,0E0,0E0,0E0],"parents":[2147483647,0,0,1,1,3,3,4,4],"right_children":[2,4,-1,6,8,-1,-1,-1,-1],"split_conditions":[5.0567E-2,2.2E1,-4.0967245E-2,4.97576E-2,2.2204E1,4.536951E-2,-4.7607292E-4,1.8934094E-3,-3.920767E-2],"split_indices":[4,0,0,4,0,0,0,0,0],"split_type":[0,0,0,0,0,0,0,0,0],"sum_hessian":[1.27457016E2,9.1330475E1,3.612654E1,5.5611584E1,3.571889E1,5.411654E1,1.4950459E0,8.361417E0,2.7357473E1],"tree_param":{"num_deleted":"0","num_feature":"13","num_nodes":"9","size_leaf_vector":"1"}}]},"name":"gbtree"},"learner_model_param":{"base_score":"[1.609756E-1]","boost_from_average":"1","num_class":"0","num_feature":"13","num_target":"1"},"objective":{"name":"binary:logistic","reg_loss_param":{"scale_pos_weight":"1"}}},"version":[3,2,0]}